<?xml version="1.0"?>
<opencv_storage>
<cascade>
  <stageType>BOOST</stageType>
  <featureType>HAAR</featureType>
  <height>24</height>
  <width>24</width>
  <stageParams>
    <boostType>GAB</boostType>
    <minHitRate>9.9500000476837158e-01</minHitRate>
    <maxFalseAlarm>5.0000000000000000e-01</maxFalseAlarm>
    <weightTrimRate>9.4999998807907104e-01</weightTrimRate>
    <maxDepth>1</maxDepth>
    <maxWeakCount>100</maxWeakCount></stageParams>
  <featureParams>
    <maxCatCount>0</maxCatCount>
    <featSize>1</featSize>
    <mode>BASIC</mode></featureParams>
  <stageNum>19</stageNum>
  <stages>
    <!-- stage 0 -->
    <_>
      <maxWeakCount>5</maxWeakCount>
      <stageThreshold>-1.4849795103073120e+00</stageThreshold>
      <weakClassifiers>
        <_>
          <internalNodes>
            0 -1 24 3.5147473216056824e-02</internalNodes>
          <leafValues>
            -8.0147057771682739e-01 6.4285713434219360e-01</leafValues></_>
        <_>
          <internalNodes>
            0 -1 93 -7.4021145701408386e-03</internalNodes>
          <leafValues>
            2.8465324640274048e-01 -7.2022968530654907e-01</leafValues></_>
        <_>
          <internalNodes>
            0 -1 144 2.6705871277954429e-05</internalNodes>
          <leafValues>
            -7.0760571956634521e-01 3.9493209123611450e-01</leafValues></_>
        <_>
          <internalNodes>
            0 -1 102 -5.2892984822392464e-03</internalNodes>
          <leafValues>
            4.6016448736190796e-01 -6.2160784006118774e-01</leafValues></_>
        <_>
          <internalNodes>
            0 -1 56 -3.0842251144349575e-03</internalNodes>
          <leafValues>
            3.6105147004127502e-01 -6.6920852661132813e-01</leafValues></_></weakClassifiers></_>
    <!-- stage 1 -->
    <_>
      <maxWeakCount>6</maxWeakCount>
      <stageThreshold>-2.2477045059204102e+00</stageThreshold>
      <weakClassifiers>
        <_>
          <internalNodes>
            0 -1 137 9.5460359007120132e-03</internalNodes>
          <leafValues>
            -8.6680328845977783e-01 2.0535714924335480e-01</leafValues></_>
        <_>
          <internalNodes>
            0 -1 100 6.4481208100914955e-03</internalNodes>
          <leafValues>
            -6.7482566833496094e-01 2.4190504848957062e-01</leafValues></_>
        <_>
          <internalNodes>
            0 -1 66 1.2196802999824286e-03</internalNodes>
          <leafValues>
            -5.3211116790771484e-01 4.0555036067962646e-01</leafValues></_>
        <_>
          <internalNodes>
            0 -1 161 2.2977110929787159e-03</internalNodes>
          <leafValues>
            -3.2959982752799988e-01 6.5995335578918457e-01</leafValues></_>
        <_>
          <internalNodes>
            0 -1 156 7.3065720498561859e-03</internalNodes>
          <leafValues>
            -4.6503666043281555e-01 4.3899336457252502e-01</leafValues></_>
        <_>
          <internalNodes>
            0 -1 5 1.0512869805097580e-02</internalNodes>
          <leafValues>
            -3.6888101696968079e-01 5.5060184001922607e-01</leafValues></_></weakClassifiers></_>
    <!-- stage 2 -->
    <_>
      <maxWeakCount>8</maxWeakCount>
      <stageThreshold>-1.6075651645660400e+00</stageThreshold>
      <weakClassifiers>
        <_>
          <internalNodes>
            0 -1 23 -1.4774378389120102e-02</internalNodes>
          <leafValues>
            1.5606936812400818e-01 -8.0525803565979004e-01</leafValues></_>
        <_>
          <internalNodes>
            0 -1 115 -6.9856583140790462e-03</internalNodes>
          <leafValues>
            4.0920427441596985e-01 -6.0982280969619751e-01</leafValues></_>
        <_>
          <internalNodes>
            0 -1 155 -3.9673484861850739e-03</internalNodes>
          <leafValues>
            5.0109225511550903e-01 -3.7100693583488464e-01</leafValues></_>
        <_>
          <internalNodes>
            0 -1 125 -1.1538675054907799e-02</internalNodes>
          <leafValues>
            5.2779549360275269e-01 -3.8137114048004150e-01</leafValues></_>
        <_>
          <internalNodes>
            0 -1 133 -1.8107678624801338e-04</internalNodes>
          <leafValues>
            4.1107347607612610e-01 -4.4066679477691650e-01</leafValues></_>
        <_>
          <internalNodes>
            0 -1 98 3.0924177262932062e-03</internalNodes>
          <leafValues>
            -2.1007393300533295e-01 6.9663596153259277e-01</leafValues></_>
        <_>
          <internalNodes>
            0 -1 113 -4.4190073385834694e-03</internalNodes>
          <leafValues>
            6.0085046291351318e-01 -3.2233396172523499e-01</leafValues></_>
        <_>
          <internalNodes>
            0 -1 22 -7.5936485081911087e-03</internalNodes>
          <leafValues>
            6.4569598436355591e-01 -2.2793848812580109e-01</leafValues></_></weakClassifiers></_>
    <!-- stage 3 -->
    <_>
      <maxWeakCount>8</maxWeakCount>
      <stageThreshold>-1.5893248319625854e+00</stageThreshold>
      <weakClassifiers>
        <_>
          <internalNodes>
            0 -1 167 -6.9774173200130463e-02</internalNodes>
          <leafValues>
            1.0666666924953461e-01 -7.7714288234710693e-01</leafValues></_>
        <_>
          <internalNodes>
            0 -1 58 -7.3636844754219055e-02</internalNodes>
          <leafValues>
            4.4341042637825012e-01 -4.7590819001197815e-01</leafValues></_>
        <_>
          <internalNodes>
            0 -1 39 3.2035250216722488e-02</internalNodes>
          <leafValues>
            2.0485313236713409e-01 -8.6582881212234497e-01</leafValues></_>
        <_>
          <internalNodes>
            0 -1 8 8.4677767008543015e-03</internalNodes>
          <leafValues>
            -3.9904701709747314e-01 3.9981770515441895e-01</leafValues></_>
        <_>
          <internalNodes>
            0 -1 84 -5.0199897959828377e-03</internalNodes>
          <leafValues>
            3.7058916687965393e-01 -4.3745687603950500e-01</leafValues></_>
        <_>
          <internalNodes>
            0 -1 16 -4.5341126620769501e-02</internalNodes>
          <leafValues>
            -8.9426589012145996e-01 1.8234185874462128e-01</leafValues></_>
        <_>
          <internalNodes>
            0 -1 71 -6.9758128374814987e-03</internalNodes>
          <leafValues>
            5.1355123519897461e-01 -2.8911373019218445e-01</leafValues></_>
        <_>
          <internalNodes>
            0 -1 52 4.9008661881089211e-03</internalNodes>
          <leafValues>
            -3.9671584963798523e-01 4.0678286552429199e-01</leafValues></_></weakClassifiers></_>
    <!-- stage 4 -->
    <_>
      <maxWeakCount>9</maxWeakCount>
      <stageThreshold>-1.5916913747787476e+00</stageThreshold>
      <weakClassifiers>
        <_>
          <internalNodes>
            0 -1 35 5.6311406195163727e-02</internalNodes>
          <leafValues>
            -8.1263613700866699e-01 -1.9148936867713928e-01</leafValues></_>
        <_>
          <internalNodes>
            0 -1 97 3.1902301125228405e-03</internalNodes>
          <leafValues>
            -4.3872585892677307e-01 3.4189757704734802e-01</leafValues></_>
        <_>
          <internalNodes>
            0 -1 129 8.4882769442629069e-05</internalNodes>
          <leafValues>
            -5.3293353319168091e-01 2.8747352957725525e-01</leafValues></_>
        <_>
          <internalNodes>
            0 -1 104 4.8531073844060302e-04</internalNodes>
          <leafValues>
            -6.1006247997283936e-01 2.1125274896621704e-01</leafValues></_>
        <_>
          <internalNodes>
            0 -1 70 -8.9890167117118835e-02</internalNodes>
          <leafValues>
            -1. 1.5789727866649628e-01</leafValues></_>
        <_>
          <internalNodes>
            0 -1 14 2.7320723980665207e-02</internalNodes>
          <leafValues>
            -2.9383417963981628e-01 4.4837665557861328e-01</leafValues></_>
        <_>
          <internalNodes>
            0 -1 121 4.8107057809829712e-02</internalNodes>
          <leafValues>
            2.4427451193332672e-01 -5.1516902446746826e-01</leafValues></_>
        <_>
          <internalNodes>
            0 -1 111 1.4097257517278194e-03</internalNodes>
          <leafValues>
            -2.7902069687843323e-01 4.5641401410102844e-01</leafValues></_>
        <_>
          <internalNodes>
            0 -1 42 -1.8784556305035949e-03</internalNodes>
          <leafValues>
            2.5075167417526245e-01 -5.2547568082809448e-01</leafValues></_></weakClassifiers></_>
    <!-- stage 5 -->
    <_>
      <maxWeakCount>8</maxWeakCount>
      <stageThreshold>-1.6086027622222900e+00</stageThreshold>
      <weakClassifiers>
        <_>
          <internalNodes>
            0 -1 112 -1.2022464536130428e-02</internalNodes>
          <leafValues>
            1.6831682622432709e-01 -7.4340307712554932e-01</leafValues></_>
        <_>
          <internalNodes>
            0 -1 57 -7.8866034746170044e-02</internalNodes>
          <leafValues>
            3.7012341618537903e-01 -4.0295597910881042e-01</leafValues></_>
        <_>
          <internalNodes>
            0 -1 158 8.6930533871054649e-03</internalNodes>
          <leafValues>
            -6.1220383644104004e-01 2.0083950459957123e-01</leafValues></_>
        <_>
          <internalNodes>
            0 -1 43 -1.3281723484396935e-02</internalNodes>
          <leafValues>
            -7.0010834932327271e-01 1.5740928053855896e-01</leafValues></_>
        <_>
          <internalNodes>
            0 -1 41 2.7293425053358078e-02</internalNodes>
          <leafValues>
            1.5849100053310394e-01 -9.1461867094039917e-01</leafValues></_>
        <_>
          <internalNodes>
            0 -1 76 -1.2129140086472034e-02</internalNodes>
          <leafValues>
            2.7683866024017334e-01 -3.7427684664726257e-01</leafValues></_>
        <_>
          <internalNodes>
            0 -1 44 5.4449134040623903e-04</internalNodes>
          <leafValues>
            1.5256373584270477e-01 -7.6305419206619263e-01</leafValues></_>
        <_>
          <internalNodes>
            0 -1 11 3.3361963927745819e-02</internalNodes>
          <leafValues>
            1.3780991733074188e-01 -6.7283213138580322e-01</leafValues></_></weakClassifiers></_>
    <!-- stage 6 -->
    <_>
      <maxWeakCount>10</maxWeakCount>
      <stageThreshold>-1.7029454708099365e+00</stageThreshold>
      <weakClassifiers>
        <_>
          <internalNodes>
            0 -1 34 5.4173387587070465e-02</internalNodes>
          <leafValues>
            -8.0217391252517700e-01 -2.2142857313156128e-01</leafValues></_>
        <_>
          <internalNodes>
            0 -1 77 6.6320411860942841e-04</internalNodes>
          <leafValues>
            -5.4816657304763794e-01 9.0759590268135071e-02</leafValues></_>
        <_>
          <internalNodes>
            0 -1 45 -1.3594400370493531e-03</internalNodes>
          <leafValues>
            -8.1026780605316162e-01 1.2488359212875366e-01</leafValues></_>
        <_>
          <internalNodes>
            0 -1 108 1.4348833356052637e-03</internalNodes>
          <leafValues>
            -3.9475962519645691e-01 2.9508382081985474e-01</leafValues></_>
        <_>
          <internalNodes>
            0 -1 103 -7.0491377264261246e-03</internalNodes>
          <leafValues>
            -9.7906947135925293e-01 1.2164761871099472e-01</leafValues></_>
        <_>
          <internalNodes>
            0 -1 153 2.0744428184116259e-05</internalNodes>
          <leafValues>
            -3.5284119844436646e-01 3.0339872837066650e-01</leafValues></_>
        <_>
          <internalNodes>
            0 -1 73 -1.4962149783968925e-02</internalNodes>
          <leafValues>
            2.8836441040039063e-01 -3.8370934128761292e-01</leafValues></_>
        <_>
          <internalNodes>
            0 -1 47 1.6296557150781155e-03</internalNodes>
          <leafValues>
            -3.9856201410293579e-01 2.7020624279975891e-01</leafValues></_>
        <_>
          <internalNodes>
            0 -1 166 -5.2938930690288544e-02</internalNodes>
          <leafValues>
            5.4013538360595703e-01 -2.0472912490367889e-01</leafValues></_>
        <_>
          <internalNodes>
            0 -1 33 1.4731974806636572e-03</internalNodes>
          <leafValues>
            1.4378784596920013e-01 -8.4683448076248169e-01</leafValues></_></weakClassifiers></_>
    <!-- stage 7 -->
    <_>
      <maxWeakCount>10</maxWeakCount>
      <stageThreshold>-1.5879920721054077e+00</stageThreshold>
      <weakClassifiers>
        <_>
          <internalNodes>
            0 -1 174 -8.6252912878990173e-02</internalNodes>
          <leafValues>
            -1.0126582533121109e-01 -7.5239920616149902e-01</leafValues></_>
        <_>
          <internalNodes>
            0 -1 68 -1.9565388560295105e-02</internalNodes>
          <leafValues>
            1.7798469960689545e-01 -4.7630101442337036e-01</leafValues></_>
        <_>
          <internalNodes>
            0 -1 48 -1.8964374248753302e-05</internalNodes>
          <leafValues>
            2.9793900251388550e-01 -3.4667757153511047e-01</leafValues></_>
        <_>
          <internalNodes>
            0 -1 72 -1.0648329555988312e-01</internalNodes>
          <leafValues>
            -9.4521355628967285e-01 1.0175334662199020e-01</leafValues></_>
        <_>
          <internalNodes>
            0 -1 152 2.3539974354207516e-03</internalNodes>
          <leafValues>
            2.1035787463188171e-01 -4.9306231737136841e-01</leafValues></_>
        <_>
          <internalNodes>
            0 -1 151 -6.8361347075551748e-04</internalNodes>
          <leafValues>
            3.4351569414138794e-01 -3.1639456748962402e-01</leafValues></_>
        <_>
          <internalNodes>
            0 -1 127 1.1578309349715710e-03</internalNodes>
          <leafValues>
            -2.3401363193988800e-01 4.2512944340705872e-01</leafValues></_>
        <_>
          <internalNodes>
            0 -1 78 -1.1605294421315193e-03</internalNodes>
          <leafValues>
            -7.1804177761077881e-01 1.4888754487037659e-01</leafValues></_>
        <_>
          <internalNodes>
            0 -1 26 2.4260308127850294e-03</internalNodes>
          <leafValues>
            -2.8966632485389709e-01 3.9438825845718384e-01</leafValues></_>
        <_>
          <internalNodes>
            0 -1 96 -3.4001909662038088e-03</internalNodes>
          <leafValues>
            5.4060047864913940e-01 -2.7408316731452942e-01</leafValues></_></weakClassifiers></_>
    <!-- stage 8 -->
    <_>
      <maxWeakCount>12</maxWeakCount>
      <stageThreshold>-1.3657391071319580e+00</stageThreshold>
      <weakClassifiers>
        <_>
          <internalNodes>
            0 -1 128 4.3093343265354633e-03</internalNodes>
          <leafValues>
            -7.7642273902893066e-01 -1.6666667163372040e-01</leafValues></_>
        <_>
          <internalNodes>
            0 -1 162 1.7556564416736364e-03</internalNodes>
          <leafValues>
            -5.9970676898956299e-01 5.4289951920509338e-02</leafValues></_>
        <_>
          <internalNodes>
            0 -1 1 3.2812580466270447e-02</internalNodes>
          <leafValues>
            -2.1961008012294769e-01 4.9843847751617432e-01</leafValues></_>
        <_>
          <internalNodes>
            0 -1 53 -1.3494344428181648e-02</internalNodes>
          <leafValues>
            2.4038322269916534e-01 -4.2553204298019409e-01</leafValues></_>
        <_>
          <internalNodes>
            0 -1 177 -1.1455854400992393e-02</internalNodes>
          <leafValues>
            5.7010501623153687e-01 -1.4188554883003235e-01</leafValues></_>
        <_>
          <internalNodes>
            0 -1 81 3.6951731890439987e-03</internalNodes>
          <leafValues>
            1.2448438256978989e-01 -7.9406124353408813e-01</leafValues></_>
        <_>
          <internalNodes>
            0 -1 131 -3.7422841414809227e-03</internalNodes>
          <leafValues>
            -7.9234981536865234e-01 9.8466314375400543e-02</leafValues></_>
        <_>
          <internalNodes>
            0 -1 123 1.2063505128026009e-02</internalNodes>
          <leafValues>
            -2.3041559755802155e-01 4.9021479487419128e-01</leafValues></_>
        <_>
          <internalNodes>
            0 -1 147 6.4799333922564983e-03</internalNodes>
          <leafValues>
            -1.2531790137290955e-01 7.5168073177337646e-01</leafValues></_>
        <_>
          <internalNodes>
            0 -1 110 -3.1371880322694778e-03</internalNodes>
          <leafValues>
            -9.0990442037582397e-01 1.3648557662963867e-01</leafValues></_>
        <_>
          <internalNodes>
            0 -1 92 -9.1892573982477188e-03</internalNodes>
          <leafValues>
            5.6764698028564453e-01 -2.1131607890129089e-01</leafValues></_>
        <_>
          <internalNodes>
            0 -1 91 3.5790870897471905e-03</internalNodes>
          <leafValues>
            -3.1488060951232910e-01 3.6160644888877869e-01</leafValues></_></weakClassifiers></_>
    <!-- stage 9 -->
    <_>
      <maxWeakCount>8</maxWeakCount>
      <stageThreshold>-1.3073717355728149e+00</stageThreshold>
      <weakClassifiers>
        <_>
          <internalNodes>
            0 -1 9 1.9036281108856201e-01</internalNodes>
          <leafValues>
            -7.1810883283615112e-01 6.3291139900684357e-02</leafValues></_>
        <_>
          <internalNodes>
            0 -1 160 1.4737244695425034e-02</internalNodes>
          <leafValues>
            -3.8621279597282410e-01 2.3448120057582855e-01</leafValues></_>
        <_>
          <internalNodes>
            0 -1 132 2.7709398418664932e-03</internalNodes>
          <leafValues>
            1.0709290206432343e-01 -8.4590303897857666e-01</leafValues></_>
        <_>
          <internalNodes>
            0 -1 120 2.6097737252712250e-02</internalNodes>
          <leafValues>
            -4.0086355805397034e-01 2.3242937028408051e-01</leafValues></_>
        <_>
          <internalNodes>
            0 -1 143 -5.1895163953304291e-02</internalNodes>
          <leafValues>
            -8.0625736713409424e-01 1.1969881504774094e-01</leafValues></_>
        <_>
          <internalNodes>
            0 -1 46 8.4132207557559013e-03</internalNodes>
          <leafValues>
            7.4859634041786194e-02 -1.</leafValues></_>
        <_>
          <internalNodes>
            0 -1 171 -2.2424240596592426e-03</internalNodes>
          <leafValues>
            -7.1135193109512329e-01 9.8421029746532440e-02</leafValues></_>
        <_>
          <internalNodes>
            0 -1 170 1.3384858611971140e-03</internalNodes>
          <leafValues>
            1.3004307448863983e-01 -6.9691234827041626e-01</leafValues></_></weakClassifiers></_>
    <!-- stage 10 -->
    <_>
      <maxWeakCount>6</maxWeakCount>
      <stageThreshold>-1.4637570381164551e+00</stageThreshold>
      <weakClassifiers>
        <_>
          <internalNodes>
            0 -1 0 5.2455537021160126e-02</internalNodes>
          <leafValues>
            -8.0136984586715698e-01 -3.0246913433074951e-01</leafValues></_>
        <_>
          <internalNodes>
            0 -1 80 -1.3645135331898928e-03</internalNodes>
          <leafValues>
            -7.4841785430908203e-01 6.7455559968948364e-02</leafValues></_>
        <_>
          <internalNodes>
            0 -1 117 1.9395748386159539e-03</internalNodes>
          <leafValues>
            1.1197876930236816e-01 -7.7568328380584717e-01</leafValues></_>
        <_>
          <internalNodes>
            0 -1 116 -1.5240923967212439e-03</internalNodes>
          <leafValues>
            -9.0619069337844849e-01 1.2209427356719971e-01</leafValues></_>
        <_>
          <internalNodes>
            0 -1 32 1.3990188017487526e-03</internalNodes>
          <leafValues>
            1.1553420871496201e-01 -7.9707449674606323e-01</leafValues></_>
        <_>
          <internalNodes>
            0 -1 87 5.5493088439106941e-03</internalNodes>
          <leafValues>
            -2.6357653737068176e-01 4.5841488242149353e-01</leafValues></_></weakClassifiers></_>
    <!-- stage 11 -->
    <_>
      <maxWeakCount>10</maxWeakCount>
      <stageThreshold>-1.3740942478179932e+00</stageThreshold>
      <weakClassifiers>
        <_>
          <internalNodes>
            0 -1 2 1.0657995194196701e-01</internalNodes>
          <leafValues>
            -7.6852792501449585e-01 -2.0000000298023224e-01</leafValues></_>
        <_>
          <internalNodes>
            0 -1 79 8.2942785229533911e-04</internalNodes>
          <leafValues>
            4.1021790355443954e-02 -6.5591645240783691e-01</leafValues></_>
        <_>
          <internalNodes>
            0 -1 90 2.8360430151224136e-02</internalNodes>
          <leafValues>
            9.4296224415302277e-02 -7.5455313920974731e-01</leafValues></_>
        <_>
          <internalNodes>
            0 -1 142 2.3201489821076393e-03</internalNodes>
          <leafValues>
            1.1795637756586075e-01 -7.5236475467681885e-01</leafValues></_>
        <_>
          <internalNodes>
            0 -1 185 2.3269359953701496e-03</internalNodes>
          <leafValues>
            1.0063778609037399e-01 -9.4767445325851440e-01</leafValues></_>
        <_>
          <internalNodes>
            0 -1 94 2.9659224674105644e-03</internalNodes>
          <leafValues>
            -2.9800769686698914e-01 3.1393611431121826e-01</leafValues></_>
        <_>
          <internalNodes>
            0 -1 141 -1.5508246142417192e-03</internalNodes>
          <leafValues>
            -6.6952025890350342e-01 1.4635166525840759e-01</leafValues></_>
        <_>
          <internalNodes>
            0 -1 182 -6.0835992917418480e-03</internalNodes>
          <leafValues>
            5.9682536125183105e-01 -1.6973640024662018e-01</leafValues></_>
        <_>
          <internalNodes>
            0 -1 186 1.3661673292517662e-03</internalNodes>
          <leafValues>
            1.8511274456977844e-01 -5.4738187789916992e-01</leafValues></_>
        <_>
          <internalNodes>
            0 -1 168 2.3723732738289982e-04</internalNodes>
          <leafValues>
            2.1660484373569489e-01 -4.0085482597351074e-01</leafValues></_></weakClassifiers></_>
    <!-- stage 12 -->
    <_>
      <maxWeakCount>10</maxWeakCount>
      <stageThreshold>-1.4835693836212158e+00</stageThreshold>
      <weakClassifiers>
        <_>
          <internalNodes>
            0 -1 10 4.3326921761035919e-02</internalNodes>
          <leafValues>
            -7.2017937898635864e-01 3.5294119268655777e-02</leafValues></_>
        <_>
          <internalNodes>
            0 -1 54 -2.0897604525089264e-02</internalNodes>
          <leafValues>
            9.5616661012172699e-02 -4.9201259016990662e-01</leafValues></_>
        <_>
          <internalNodes>
            0 -1 62 -1.8730744719505310e-02</internalNodes>
          <leafValues>
            -8.0576962232589722e-01 9.9355556070804596e-02</leafValues></_>
        <_>
          <internalNodes>
            0 -1 40 -1.1414352338761091e-03</internalNodes>
          <leafValues>
            -6.9177627563476563e-01 1.2480825930833817e-01</leafValues></_>
        <_>
          <internalNodes>
            0 -1 184 -1.9327718764543533e-03</internalNodes>
          <leafValues>
            -8.4653627872467041e-01 1.2822030484676361e-01</leafValues></_>
        <_>
          <internalNodes>
            0 -1 85 6.4252992160618305e-03</internalNodes>
          <leafValues>
            -1.9339261949062347e-01 5.3799569606781006e-01</leafValues></_>
        <_>
          <internalNodes>
            0 -1 138 -2.7405063156038523e-03</internalNodes>
          <leafValues>
            -6.7616528272628784e-01 1.2511822581291199e-01</leafValues></_>
        <_>
          <internalNodes>
            0 -1 126 -6.0782693326473236e-03</internalNodes>
          <leafValues>
            4.6081158518791199e-01 -1.9350585341453552e-01</leafValues></_>
        <_>
          <internalNodes>
            0 -1 95 3.2513334881514311e-03</internalNodes>
          <leafValues>
            -2.0646718144416809e-01 4.4801804423332214e-01</leafValues></_>
        <_>
          <internalNodes>
            0 -1 119 1.4067105948925018e-03</internalNodes>
          <leafValues>
            1.1551992595195770e-01 -8.0999928712844849e-01</leafValues></_></weakClassifiers></_>
    <!-- stage 13 -->
    <_>
      <maxWeakCount>10</maxWeakCount>
      <stageThreshold>-1.4233644008636475e+00</stageThreshold>
      <weakClassifiers>
        <_>
          <internalNodes>
            0 -1 183 -1.1424355208873749e-02</internalNodes>
          <leafValues>
            2.4590164422988892e-01 -7.1553993225097656e-01</leafValues></_>
        <_>
          <internalNodes>
            0 -1 6 -6.5188771113753319e-03</internalNodes>
          <leafValues>
            4.5787310600280762e-01 -3.2141560316085815e-01</leafValues></_>
        <_>
          <internalNodes>
            0 -1 60 1.4445788227021694e-02</internalNodes>
          <leafValues>
            -3.7809875607490540e-01 2.6026713848114014e-01</leafValues></_>
        <_>
          <internalNodes>
            0 -1 50 8.7790302932262421e-03</internalNodes>
          <leafValues>
            -3.4796240925788879e-01 2.6495140790939331e-01</leafValues></_>
        <_>
          <internalNodes>
            0 -1 114 -5.6869760155677795e-03</internalNodes>
          <leafValues>
            6.1285531520843506e-01 -1.4821548759937286e-01</leafValues></_>
        <_>
          <internalNodes>
            0 -1 130 -3.7665548734366894e-03</internalNodes>
          <leafValues>
            5.0215268135070801e-01 -1.9907841086387634e-01</leafValues></_>
        <_>
          <internalNodes>
            0 -1 146 -4.5145615935325623e-02</internalNodes>
          <leafValues>
            -8.4769982099533081e-01 1.7305625975131989e-01</leafValues></_>
        <_>
          <internalNodes>
            0 -1 83 1.4335376210510731e-02</internalNodes>
          <leafValues>
            6.7111060023307800e-02 -7.7356827259063721e-01</leafValues></_>
        <_>
          <internalNodes>
            0 -1 118 -6.2185549177229404e-04</internalNodes>
          <leafValues>
            -7.9905754327774048e-01 1.0827182233333588e-01</leafValues></_>
        <_>
          <internalNodes>
            0 -1 75 8.6640128865838051e-03</internalNodes>
          <leafValues>
            -1.5360024571418762e-01 6.1470657587051392e-01</leafValues></_></weakClassifiers></_>
    <!-- stage 14 -->
    <_>
      <maxWeakCount>12</maxWeakCount>
      <stageThreshold>-1.4245476722717285e+00</stageThreshold>
      <weakClassifiers>
        <_>
          <internalNodes>
            0 -1 51 7.6700218021869659e-02</internalNodes>
          <leafValues>
            -7.5023829936981201e-01 -8.6092717945575714e-02</leafValues></_>
        <_>
          <internalNodes>
            0 -1 89 1.2233184650540352e-02</internalNodes>
          <leafValues>
            -4.6973690390586853e-01 1.2733393907546997e-01</leafValues></_>
        <_>
          <internalNodes>
            0 -1 18 -5.1406122744083405e-02</internalNodes>
          <leafValues>
            -7.9510718584060669e-01 1.0380104929208755e-01</leafValues></_>
        <_>
          <internalNodes>
            0 -1 165 -1.9442178308963776e-03</internalNodes>
          <leafValues>
            -6.2884050607681274e-01 1.5563417971134186e-01</leafValues></_>
        <_>
          <internalNodes>
            0 -1 178 1.8138943705707788e-03</internalNodes>
          <leafValues>
            1.0855774581432343e-01 -6.0740417242050171e-01</leafValues></_>
        <_>
          <internalNodes>
            0 -1 30 -1.6090061981230974e-03</internalNodes>
          <leafValues>
            3.3340370655059814e-01 -2.7577725052833557e-01</leafValues></_>
        <_>
          <internalNodes>
            0 -1 176 5.7726539671421051e-04</internalNodes>
          <leafValues>
            1.6047459840774536e-01 -4.9797096848487854e-01</leafValues></_>
        <_>
          <internalNodes>
            0 -1 134 1.3744291209150106e-04</internalNodes>
          <leafValues>
            -4.6824356913566589e-01 1.9327758252620697e-01</leafValues></_>
        <_>
          <internalNodes>
            0 -1 49 2.6533007621765137e-03</internalNodes>
          <leafValues>
            1.2089594453573227e-01 -6.6143262386322021e-01</leafValues></_>
        <_>
          <internalNodes>
            0 -1 82 3.1720490660518408e-03</internalNodes>
          <leafValues>
            -3.1093648076057434e-01 2.8128126263618469e-01</leafValues></_>
        <_>
          <internalNodes>
            0 -1 4 -2.3729363456368446e-03</internalNodes>
          <leafValues>
            -8.7250179052352905e-01 1.0076137632131577e-01</leafValues></_>
        <_>
          <internalNodes>
            0 -1 164 -9.7098620608448982e-03</internalNodes>
          <leafValues>
            4.0209734439849854e-01 -2.3331350088119507e-01</leafValues></_></weakClassifiers></_>
    <!-- stage 15 -->
    <_>
      <maxWeakCount>15</maxWeakCount>
      <stageThreshold>-1.6706436872482300e+00</stageThreshold>
      <weakClassifiers>
        <_>
          <internalNodes>
            0 -1 109 -2.2563957609236240e-03</internalNodes>
          <leafValues>
            -2.7027027681469917e-02 -7.3186409473419189e-01</leafValues></_>
        <_>
          <internalNodes>
            0 -1 124 -1.7951701302081347e-03</internalNodes>
          <leafValues>
            3.5000458359718323e-01 -3.3717462420463562e-01</leafValues></_>
        <_>
          <internalNodes>
            0 -1 37 -1.3593973591923714e-02</internalNodes>
          <leafValues>
            2.3183463513851166e-01 -3.9747646450996399e-01</leafValues></_>
        <_>
          <internalNodes>
            0 -1 20 -7.8133912757039070e-03</internalNodes>
          <leafValues>
            2.3162212967872620e-01 -3.6445596814155579e-01</leafValues></_>
        <_>
          <internalNodes>
            0 -1 21 -3.9179990999400616e-03</internalNodes>
          <leafValues>
            -9.2985141277313232e-01 1.2873114645481110e-01</leafValues></_>
        <_>
          <internalNodes>
            0 -1 101 4.5221992768347263e-03</internalNodes>
          <leafValues>
            -2.7597051858901978e-01 3.5693094134330750e-01</leafValues></_>
        <_>
          <internalNodes>
            0 -1 86 -7.0870174095034599e-03</internalNodes>
          <leafValues>
            8.2323914766311646e-01 -7.1805760264396667e-02</leafValues></_>
        <_>
          <internalNodes>
            0 -1 163 1.7780826892703772e-03</internalNodes>
          <leafValues>
            -1.3878129422664642e-01 5.7101374864578247e-01</leafValues></_>
        <_>
          <internalNodes>
            0 -1 105 2.5968667864799500e-01</internalNodes>
          <leafValues>
            1.0662384331226349e-01 -8.2264328002929688e-01</leafValues></_>
        <_>
          <internalNodes>
            0 -1 69 -2.7675978839397430e-02</internalNodes>
          <leafValues>
            -7.6675802469253540e-01 1.0880701988935471e-01</leafValues></_>
        <_>
          <internalNodes>
            0 -1 159 -2.9663708992302418e-03</internalNodes>
          <leafValues>
            3.8103479146957397e-01 -2.3698924481868744e-01</leafValues></_>
        <_>
          <internalNodes>
            0 -1 13 9.5397664699703455e-04</internalNodes>
          <leafValues>
            1.7398650944232941e-01 -5.4819256067276001e-01</leafValues></_>
        <_>
          <internalNodes>
            0 -1 180 1.0234145447611809e-02</internalNodes>
          <leafValues>
            -1.2327145040035248e-01 7.8369981050491333e-01</leafValues></_>
        <_>
          <internalNodes>
            0 -1 154 -9.8903314210474491e-04</internalNodes>
          <leafValues>
            3.3650287985801697e-01 -3.1051447987556458e-01</leafValues></_>
        <_>
          <internalNodes>
            0 -1 169 4.3184445530641824e-05</internalNodes>
          <leafValues>
            -4.2806372046470642e-01 2.6145884394645691e-01</leafValues></_></weakClassifiers></_>
    <!-- stage 16 -->
    <_>
      <maxWeakCount>16</maxWeakCount>
      <stageThreshold>-1.5938972234725952e+00</stageThreshold>
      <weakClassifiers>
        <_>
          <internalNodes>
            0 -1 139 -8.3091575652360916e-03</internalNodes>
          <leafValues>
            -1.8840579688549042e-01 -7.2881358861923218e-01</leafValues></_>
        <_>
          <internalNodes>
            0 -1 157 3.7064449861645699e-03</internalNodes>
          <leafValues>
            -3.0068549513816833e-01 3.6483445763587952e-01</leafValues></_>
        <_>
          <internalNodes>
            0 -1 64 -5.1641133613884449e-03</internalNodes>
          <leafValues>
            -8.3013027906417847e-01 9.4553031027317047e-02</leafValues></_>
        <_>
          <internalNodes>
            0 -1 149 1.7951780464500189e-03</internalNodes>
          <leafValues>
            1.4921793341636658e-01 -6.0863023996353149e-01</leafValues></_>
        <_>
          <internalNodes>
            0 -1 140 1.2794372159987688e-03</internalNodes>
          <leafValues>
            8.0688424408435822e-02 -7.0172190666198730e-01</leafValues></_>
        <_>
          <internalNodes>
            0 -1 175 -2.5700915604829788e-02</internalNodes>
          <leafValues>
            3.5549533367156982e-01 -2.1389110386371613e-01</leafValues></_>
        <_>
          <internalNodes>
            0 -1 17 3.4164465032517910e-03</internalNodes>
          <leafValues>
            -1.6144278645515442e-01 4.8641410470008850e-01</leafValues></_>
        <_>
          <internalNodes>
            0 -1 107 -8.7248012423515320e-03</internalNodes>
          <leafValues>
            3.4807461500167847e-01 -2.0843093097209930e-01</leafValues></_>
        <_>
          <internalNodes>
            0 -1 106 1.8500333651900291e-02</internalNodes>
          <leafValues>
            -1.5754871070384979e-01 5.4773998260498047e-01</leafValues></_>
        <_>
          <internalNodes>
            0 -1 74 5.0051547586917877e-03</internalNodes>
          <leafValues>
            -1.6277773678302765e-01 4.8902946710586548e-01</leafValues></_>
        <_>
          <internalNodes>
            0 -1 150 -2.6612803339958191e-03</internalNodes>
          <leafValues>
            -7.0537382364273071e-01 1.1783172190189362e-01</leafValues></_>
        <_>
          <internalNodes>
            0 -1 172 2.1272499579936266e-03</internalNodes>
          <leafValues>
            1.1298485845327377e-01 -6.5618610382080078e-01</leafValues></_>
        <_>
          <internalNodes>
            0 -1 63 3.1705135479569435e-03</internalNodes>
          <leafValues>
            -2.3165610432624817e-01 3.5163915157318115e-01</leafValues></_>
        <_>
          <internalNodes>
            0 -1 61 3.7590165156871080e-03</internalNodes>
          <leafValues>
            -2.3643015325069427e-01 3.7603330612182617e-01</leafValues></_>
        <_>
          <internalNodes>
            0 -1 122 -5.9495475143194199e-03</internalNodes>
          <leafValues>
            3.8036835193634033e-01 -2.4672670662403107e-01</leafValues></_>
        <_>
          <internalNodes>
            0 -1 19 7.9106708290055394e-04</internalNodes>
          <leafValues>
            1.1727744340896606e-01 -6.9331914186477661e-01</leafValues></_></weakClassifiers></_>
    <!-- stage 17 -->
    <_>
      <maxWeakCount>12</maxWeakCount>
      <stageThreshold>-1.4612064361572266e+00</stageThreshold>
      <weakClassifiers>
        <_>
          <internalNodes>
            0 -1 27 -9.1978795826435089e-03</internalNodes>
          <leafValues>
            -3.2806324958801270e-01 -7.5712776184082031e-01</leafValues></_>
        <_>
          <internalNodes>
            0 -1 12 3.9587938226759434e-03</internalNodes>
          <leafValues>
            -4.8950070142745972e-01 5.4134443402290344e-02</leafValues></_>
        <_>
          <internalNodes>
            0 -1 31 6.4645171165466309e-02</internalNodes>
          <leafValues>
            8.2963898777961731e-02 -7.6410526037216187e-01</leafValues></_>
        <_>
          <internalNodes>
            0 -1 25 -1.2169625610113144e-02</internalNodes>
          <leafValues>
            3.0275052785873413e-01 -2.6981046795845032e-01</leafValues></_>
        <_>
          <internalNodes>
            0 -1 145 -6.2172962352633476e-03</internalNodes>
          <leafValues>
            2.8348129987716675e-01 -3.0946353077888489e-01</leafValues></_>
        <_>
          <internalNodes>
            0 -1 67 1.0192082263529301e-03</internalNodes>
          <leafValues>
            1.5340362489223480e-01 -5.7895296812057495e-01</leafValues></_>
        <_>
          <internalNodes>
            0 -1 136 -3.0727989505976439e-03</internalNodes>
          <leafValues>
            3.8035565614700317e-01 -2.2318540513515472e-01</leafValues></_>
        <_>
          <internalNodes>
            0 -1 7 -1.4483979903161526e-03</internalNodes>
          <leafValues>
            -8.1165522336959839e-01 1.0508020222187042e-01</leafValues></_>
        <_>
          <internalNodes>
            0 -1 38 -3.8266383111476898e-02</internalNodes>
          <leafValues>
            -8.3368593454360962e-01 6.2427267432212830e-02</leafValues></_>
        <_>
          <internalNodes>
            0 -1 88 -2.1890336647629738e-03</internalNodes>
          <leafValues>
            2.3652102053165436e-01 -3.1813132762908936e-01</leafValues></_>
        <_>
          <internalNodes>
            0 -1 99 -2.7171634137630463e-02</internalNodes>
          <leafValues>
            -8.4824186563491821e-01 8.4014169871807098e-02</leafValues></_>
        <_>
          <internalNodes>
            0 -1 92 -9.1001316905021667e-03</internalNodes>
          <leafValues>
            4.7084438800811768e-01 -1.7482127249240875e-01</leafValues></_></weakClassifiers></_>
    <!-- stage 18 -->
    <_>
      <maxWeakCount>13</maxWeakCount>
      <stageThreshold>-1.2710573673248291e+00</stageThreshold>
      <weakClassifiers>
        <_>
          <internalNodes>
            0 -1 55 -3.9234943687915802e-03</internalNodes>
          <leafValues>
            8.5714288055896759e-02 -7.1327435970306396e-01</leafValues></_>
        <_>
          <internalNodes>
            0 -1 29 -5.1571503281593323e-02</internalNodes>
          <leafValues>
            2.7769857645034790e-01 -3.4438732266426086e-01</leafValues></_>
        <_>
          <internalNodes>
            0 -1 181 -7.2510442696511745e-03</internalNodes>
          <leafValues>
            4.4496405124664307e-01 -1.5669709444046021e-01</leafValues></_>
        <_>
          <internalNodes>
            0 -1 3 6.0122661292552948e-02</internalNodes>
          <leafValues>
            1.0514703392982483e-01 -7.2250878810882568e-01</leafValues></_>
        <_>
          <internalNodes>
            0 -1 65 -3.5428460687398911e-03</internalNodes>
          <leafValues>
            -7.9469007253646851e-01 1.2341094017028809e-01</leafValues></_>
        <_>
          <internalNodes>
            0 -1 179 2.6810215786099434e-03</internalNodes>
          <leafValues>
            -2.0250271260738373e-01 4.3861201405525208e-01</leafValues></_>
        <_>
          <internalNodes>
            0 -1 59 -1.8184533109888434e-03</internalNodes>
          <leafValues>
            3.7913081049919128e-01 -1.9277304410934448e-01</leafValues></_>
        <_>
          <internalNodes>
            0 -1 28 -3.5284315235912800e-03</internalNodes>
          <leafValues>
            3.5512483119964600e-01 -1.9878396391868591e-01</leafValues></_>
        <_>
          <internalNodes>
            0 -1 148 1.7854311736300588e-03</internalNodes>
          <leafValues>
            8.7840661406517029e-02 -8.8647735118865967e-01</leafValues></_>
        <_>
          <internalNodes>
            0 -1 15 -7.3638046160340309e-03</internalNodes>
          <leafValues>
            5.1758009195327759e-01 -1.4584881067276001e-01</leafValues></_>
        <_>
          <internalNodes>
            0 -1 135 -9.8207280039787292e-02</internalNodes>
          <leafValues>
            -7.5241106748580933e-01 9.6567004919052124e-02</leafValues></_>
        <_>
          <internalNodes>
            0 -1 173 -1.5770001336932182e-03</internalNodes>
          <leafValues>
            -6.2617039680480957e-01 9.7860366106033325e-02</leafValues></_>
        <_>
          <internalNodes>
            0 -1 36 1.2245964258909225e-02</internalNodes>
          <leafValues>
            -1.5200297534465790e-01 4.7109800577163696e-01</leafValues></_></weakClassifiers></_></stages>
  <features>
    <_>
      <rects>
        <_>
          0 1 6 19 -1.</_>
        <_>
          3 1 3 19 2.</_></rects>
      <tilted>0</tilted></_>
    <_>
      <rects>
        <_>
          0 2 8 4 -1.</_>
        <_>
          4 2 4 4 2.</_></rects>
      <tilted>0</tilted></_>
    <_>
      <rects>
        <_>
          0 2 8 17 -1.</_>
        <_>
          4 2 4 17 2.</_></rects>
      <tilted>0</tilted></_>
    <_>
      <rects>
        <_>
          0 2 24 8 -1.</_>
        <_>
          0 2 12 4 2.</_>
        <_>
          12 6 12 4 2.</_></rects>
      <tilted>0</tilted></_>
    <_>
      <rects>
        <_>
          0 3 3 3 -1.</_>
        <_>
          0 4 3 1 3.</_></rects>
      <tilted>0</tilted></_>
    <_>
      <rects>
        <_>
          0 3 6 8 -1.</_>
        <_>
          3 3 3 8 2.</_></rects>
      <tilted>0</tilted></_>
    <_>
      <rects>
        <_>
          0 7 3 7 -1.</_>
        <_>
          1 7 1 7 3.</_></rects>
      <tilted>0</tilted></_>
    <_>
      <rects>
        <_>
          0 8 3 2 -1.</_>
        <_>
          0 9 3 1 2.</_></rects>
      <tilted>0</tilted></_>
    <_>
      <rects>
        <_>
          0 9 9 4 -1.</_>
        <_>
          3 9 3 4 3.</_></rects>
      <tilted>0</tilted></_>
    <_>
      <rects>
        <_>
          0 15 24 7 -1.</_>
        <_>
          8 15 8 7 3.</_></rects>
      <tilted>0</tilted></_>
    <_>
      <rects>
        <_>
          0 21 24 1 -1.</_>
        <_>
          8 21 8 1 3.</_></rects>
      <tilted>0</tilted></_>
    <_>
      <rects>
        <_>
          1 1 16 12 -1.</_>
        <_>
          1 1 8 6 2.</_>
        <_>
          9 7 8 6 2.</_></rects>
      <tilted>0</tilted></_>
    <_>
      <rects>
        <_>
          1 2 8 2 -1.</_>
        <_>
          5 2 4 2 2.</_></rects>
      <tilted>0</tilted></_>
    <_>
      <rects>
        <_>
          1 3 2 3 -1.</_>
        <_>
          1 4 2 1 3.</_></rects>
      <tilted>0</tilted></_>
    <_>
      <rects>
        <_>
          1 3 4 16 -1.</_>
        <_>
          3 3 2 16 2.</_></rects>
      <tilted>0</tilted></_>
    <_>
      <rects>
        <_>
          1 4 3 13 -1.</_>
        <_>
          2 4 1 13 3.</_></rects>
      <tilted>0</tilted></_>
    <_>
      <rects>
        <_>
          1 5 13 18 -1.</_>
        <_>
          1 11 13 6 3.</_></rects>
      <tilted>0</tilted></_>
    <_>
      <rects>
        <_>
          1 6 3 5 -1.</_>
        <_>
          2 6 1 5 3.</_></rects>
      <tilted>0</tilted></_>
    <_>
      <rects>
        <_>
          1 6 20 10 -1.</_>
        <_>
          1 6 10 5 2.</_>
        <_>
          11 11 10 5 2.</_></rects>
      <tilted>0</tilted></_>
    <_>
      <rects>
        <_>
          1 9 1 3 -1.</_>
        <_>
          1 10 1 1 3.</_></rects>
      <tilted>0</tilted></_>
    <_>
      <rects>
        <_>
          1 10 4 12 -1.</_>
        <_>
          1 16 4 6 2.</_></rects>
      <tilted>0</tilted></_>
    <_>
      <rects>
        <_>
          1 16 5 3 -1.</_>
        <_>
          1 17 5 1 3.</_></rects>
      <tilted>0</tilted></_>
    <_>
      <rects>
        <_>
          1 17 6 6 -1.</_>
        <_>
          1 17 3 3 2.</_>
        <_>
          4 20 3 3 2.</_></rects>
      <tilted>0</tilted></_>
    <_>
      <rects>
        <_>
          2 2 6 8 -1.</_>
        <_>
          2 2 3 4 2.</_>
        <_>
          5 6 3 4 2.</_></rects>
      <tilted>0</tilted></_>
    <_>
      <rects>
        <_>
          2 8 18 4 -1.</_>
        <_>
          2 10 18 2 2.</_></rects>
      <tilted>0</tilted></_>
    <_>
      <rects>
        <_>
          2 10 3 12 -1.</_>
        <_>
          2 16 3 6 2.</_></rects>
      <tilted>0</tilted></_>
    <_>
      <rects>
        <_>
          2 15 14 3 -1.</_>
        <_>
          2 16 14 1 3.</_></rects>
      <tilted>0</tilted></_>
    <_>
      <rects>
        <_>
          2 16 18 3 -1.</_>
        <_>
          2 17 18 1 3.</_></rects>
      <tilted>0</tilted></_>
    <_>
      <rects>
        <_>
          3 0 4 6 -1.</_>
        <_>
          3 0 2 3 2.</_>
        <_>
          5 3 2 3 2.</_></rects>
      <tilted>0</tilted></_>
    <_>
      <rects>
        <_>
          3 6 18 6 -1.</_>
        <_>
          3 8 18 2 3.</_></rects>
      <tilted>0</tilted></_>
    <_>
      <rects>
        <_>
          3 7 4 2 -1.</_>
        <_>
          5 7 2 2 2.</_></rects>
      <tilted>0</tilted></_>
    <_>
      <rects>
        <_>
          3 7 16 14 -1.</_>
        <_>
          3 7 8 7 2.</_>
        <_>
          11 14 8 7 2.</_></rects>
      <tilted>0</tilted></_>
    <_>
      <rects>
        <_>
          3 13 2 3 -1.</_>
        <_>
          3 14 2 1 3.</_></rects>
      <tilted>0</tilted></_>
    <_>
      <rects>
        <_>
          3 15 3 3 -1.</_>
        <_>
          3 16 3 1 3.</_></rects>
      <tilted>0</tilted></_>
    <_>
      <rects>
        <_>
          4 0 13 9 -1.</_>
        <_>
          4 3 13 3 3.</_></rects>
      <tilted>0</tilted></_>
    <_>
      <rects>
        <_>
          4 0 17 9 -1.</_>
        <_>
          4 3 17 3 3.</_></rects>
      <tilted>0</tilted></_>
    <_>
      <rects>
        <_>
          4 5 15 6 -1.</_>
        <_>
          4 7 15 2 3.</_></rects>
      <tilted>0</tilted></_>
    <_>
      <rects>
        <_>
          4 6 10 12 -1.</_>
        <_>
          4 6 5 6 2.</_>
        <_>
          9 12 5 6 2.</_></rects>
      <tilted>0</tilted></_>
    <_>
      <rects>
        <_>
          4 8 18 2 -1.</_>
        <_>
          10 8 6 2 3.</_></rects>
      <tilted>0</tilted></_>
    <_>
      <rects>
        <_>
          4 9 11 12 -1.</_>
        <_>
          4 15 11 6 2.</_></rects>
      <tilted>0</tilted></_>
    <_>
      <rects>
        <_>
          4 11 3 3 -1.</_>
        <_>
          5 11 1 3 3.</_></rects>
      <tilted>0</tilted></_>
    <_>
      <rects>
        <_>
          4 11 14 8 -1.</_>
        <_>
          4 11 7 4 2.</_>
        <_>
          11 15 7 4 2.</_></rects>
      <tilted>0</tilted></_>
    <_>
      <rects>
        <_>
          4 12 12 9 -1.</_>
        <_>
          4 15 12 3 3.</_></rects>
      <tilted>0</tilted></_>
    <_>
      <rects>
        <_>
          4 13 14 6 -1.</_>
        <_>
          4 13 7 3 2.</_>
        <_>
          11 16 7 3 2.</_></rects>
      <tilted>0</tilted></_>
    <_>
      <rects>
        <_>
          4 14 1 3 -1.</_>
        <_>
          4 15 1 1 3.</_></rects>
      <tilted>0</tilted></_>
    <_>
      <rects>
        <_>
          4 14 2 3 -1.</_>
        <_>
          4 15 2 1 3.</_></rects>
      <tilted>0</tilted></_>
    <_>
      <rects>
        <_>
          4 14 3 6 -1.</_>
        <_>
          4 16 3 2 3.</_></rects>
      <tilted>0</tilted></_>
    <_>
      <rects>
        <_>
          4 17 7 6 -1.</_>
        <_>
          4 19 7 2 3.</_></rects>
      <tilted>0</tilted></_>
    <_>
      <rects>
        <_>
          4 18 1 2 -1.</_>
        <_>
          4 19 1 1 2.</_></rects>
      <tilted>0</tilted></_>
    <_>
      <rects>
        <_>
          5 0 3 6 -1.</_>
        <_>
          6 0 1 6 3.</_></rects>
      <tilted>0</tilted></_>
    <_>
      <rects>
        <_>
          5 0 19 6 -1.</_>
        <_>
          5 2 19 2 3.</_></rects>
      <tilted>0</tilted></_>
    <_>
      <rects>
        <_>
          5 1 14 9 -1.</_>
        <_>
          5 4 14 3 3.</_></rects>
      <tilted>0</tilted></_>
    <_>
      <rects>
        <_>
          5 3 6 7 -1.</_>
        <_>
          8 3 3 7 2.</_></rects>
      <tilted>0</tilted></_>
    <_>
      <rects>
        <_>
          5 3 8 16 -1.</_>
        <_>
          5 3 4 8 2.</_>
        <_>
          9 11 4 8 2.</_></rects>
      <tilted>0</tilted></_>
    <_>
      <rects>
        <_>
          5 3 8 12 -1.</_>
        <_>
          5 7 8 4 3.</_></rects>
      <tilted>0</tilted></_>
    <_>
      <rects>
        <_>
          5 4 2 3 -1.</_>
        <_>
          5 5 2 1 3.</_></rects>
      <tilted>0</tilted></_>
    <_>
      <rects>
        <_>
          5 4 8 14 -1.</_>
        <_>
          5 4 4 7 2.</_>
        <_>
          9 11 4 7 2.</_></rects>
      <tilted>0</tilted></_>
    <_>
      <rects>
        <_>
          5 4 13 9 -1.</_>
        <_>
          5 7 13 3 3.</_></rects>
      <tilted>0</tilted></_>
    <_>
      <rects>
        <_>
          5 4 14 9 -1.</_>
        <_>
          5 7 14 3 3.</_></rects>
      <tilted>0</tilted></_>
    <_>
      <rects>
        <_>
          5 6 3 3 -1.</_>
        <_>
          5 7 3 1 3.</_></rects>
      <tilted>0</tilted></_>
    <_>
      <rects>
        <_>
          5 7 10 6 -1.</_>
        <_>
          5 10 10 3 2.</_></rects>
      <tilted>0</tilted></_>
    <_>
      <rects>
        <_>
          5 12 13 3 -1.</_>
        <_>
          5 13 13 1 3.</_></rects>
      <tilted>0</tilted></_>
    <_>
      <rects>
        <_>
          5 14 12 6 -1.</_>
        <_>
          5 14 6 3 2.</_>
        <_>
          11 17 6 3 2.</_></rects>
      <tilted>0</tilted></_>
    <_>
      <rects>
        <_>
          5 14 12 3 -1.</_>
        <_>
          5 15 12 1 3.</_></rects>
      <tilted>0</tilted></_>
    <_>
      <rects>
        <_>
          5 15 4 6 -1.</_>
        <_>
          5 15 2 3 2.</_>
        <_>
          7 18 2 3 2.</_></rects>
      <tilted>0</tilted></_>
    <_>
      <rects>
        <_>
          6 0 3 7 -1.</_>
        <_>
          7 0 1 7 3.</_></rects>
      <tilted>0</tilted></_>
    <_>
      <rects>
        <_>
          6 0 2 6 -1.</_>
        <_>
          6 2 2 2 3.</_></rects>
      <tilted>0</tilted></_>
    <_>
      <rects>
        <_>
          6 3 3 2 -1.</_>
        <_>
          7 3 1 2 3.</_></rects>
      <tilted>0</tilted></_>
    <_>
      <rects>
        <_>
          6 3 10 6 -1.</_>
        <_>
          6 6 10 3 2.</_></rects>
      <tilted>0</tilted></_>
    <_>
      <rects>
        <_>
          6 5 7 18 -1.</_>
        <_>
          6 11 7 6 3.</_></rects>
      <tilted>0</tilted></_>
    <_>
      <rects>
        <_>
          6 5 9 14 -1.</_>
        <_>
          6 12 9 7 2.</_></rects>
      <tilted>0</tilted></_>
    <_>
      <rects>
        <_>
          6 8 6 5 -1.</_>
        <_>
          8 8 2 5 3.</_></rects>
      <tilted>0</tilted></_>
    <_>
      <rects>
        <_>
          6 12 15 12 -1.</_>
        <_>
          6 16 15 4 3.</_></rects>
      <tilted>0</tilted></_>
    <_>
      <rects>
        <_>
          6 14 12 5 -1.</_>
        <_>
          10 14 4 5 3.</_></rects>
      <tilted>0</tilted></_>
    <_>
      <rects>
        <_>
          6 16 11 3 -1.</_>
        <_>
          6 17 11 1 3.</_></rects>
      <tilted>0</tilted></_>
    <_>
      <rects>
        <_>
          6 16 16 3 -1.</_>
        <_>
          6 17 16 1 3.</_></rects>
      <tilted>0</tilted></_>
    <_>
      <rects>
        <_>
          6 20 14 4 -1.</_>
        <_>
          6 22 14 2 2.</_></rects>
      <tilted>0</tilted></_>
    <_>
      <rects>
        <_>
          7 0 1 6 -1.</_>
        <_>
          7 2 1 2 3.</_></rects>
      <tilted>0</tilted></_>
    <_>
      <rects>
        <_>
          7 0 3 3 -1.</_>
        <_>
          8 0 1 3 3.</_></rects>
      <tilted>0</tilted></_>
    <_>
      <rects>
        <_>
          7 1 3 3 -1.</_>
        <_>
          8 1 1 3 3.</_></rects>
      <tilted>0</tilted></_>
    <_>
      <rects>
        <_>
          7 2 6 1 -1.</_>
        <_>
          9 2 2 1 3.</_></rects>
      <tilted>0</tilted></_>
    <_>
      <rects>
        <_>
          7 2 6 2 -1.</_>
        <_>
          9 2 2 2 3.</_></rects>
      <tilted>0</tilted></_>
    <_>
      <rects>
        <_>
          7 10 17 3 -1.</_>
        <_>
          7 11 17 1 3.</_></rects>
      <tilted>0</tilted></_>
    <_>
      <rects>
        <_>
          7 13 10 6 -1.</_>
        <_>
          7 13 5 3 2.</_>
        <_>
          12 16 5 3 2.</_></rects>
      <tilted>0</tilted></_>
    <_>
      <rects>
        <_>
          7 14 9 6 -1.</_>
        <_>
          10 14 3 6 3.</_></rects>
      <tilted>0</tilted></_>
    <_>
      <rects>
        <_>
          7 14 9 3 -1.</_>
        <_>
          7 15 9 1 3.</_></rects>
      <tilted>0</tilted></_>
    <_>
      <rects>
        <_>
          7 15 4 3 -1.</_>
        <_>
          7 16 4 1 3.</_></rects>
      <tilted>0</tilted></_>
    <_>
      <rects>
        <_>
          7 15 10 3 -1.</_>
        <_>
          7 16 10 1 3.</_></rects>
      <tilted>0</tilted></_>
    <_>
      <rects>
        <_>
          7 18 9 2 -1.</_>
        <_>
          10 18 3 2 3.</_></rects>
      <tilted>0</tilted></_>
    <_>
      <rects>
        <_>
          7 18 11 6 -1.</_>
        <_>
          7 20 11 2 3.</_></rects>
      <tilted>0</tilted></_>
    <_>
      <rects>
        <_>
          8 5 6 16 -1.</_>
        <_>
          8 13 6 8 2.</_></rects>
      <tilted>0</tilted></_>
    <_>
      <rects>
        <_>
          8 7 4 4 -1.</_>
        <_>
          10 7 2 4 2.</_></rects>
      <tilted>0</tilted></_>
    <_>
      <rects>
        <_>
          8 7 6 4 -1.</_>
        <_>
          10 7 2 4 3.</_></rects>
      <tilted>0</tilted></_>
    <_>
      <rects>
        <_>
          8 11 7 12 -1.</_>
        <_>
          8 15 7 4 3.</_></rects>
      <tilted>0</tilted></_>
    <_>
      <rects>
        <_>
          8 11 8 3 -1.</_>
        <_>
          8 12 8 1 3.</_></rects>
      <tilted>0</tilted></_>
    <_>
      <rects>
        <_>
          8 12 6 3 -1.</_>
        <_>
          8 13 6 1 3.</_></rects>
      <tilted>0</tilted></_>
    <_>
      <rects>
        <_>
          8 15 6 3 -1.</_>
        <_>
          8 16 6 1 3.</_></rects>
      <tilted>0</tilted></_>
    <_>
      <rects>
        <_>
          8 15 7 3 -1.</_>
        <_>
          8 16 7 1 3.</_></rects>
      <tilted>0</tilted></_>
    <_>
      <rects>
        <_>
          8 16 8 3 -1.</_>
        <_>
          8 17 8 1 3.</_></rects>
      <tilted>0</tilted></_>
    <_>
      <rects>
        <_>
          8 17 9 4 -1.</_>
        <_>
          11 17 3 4 3.</_></rects>
      <tilted>0</tilted></_>
    <_>
      <rects>
        <_>
          8 18 7 6 -1.</_>
        <_>
          8 20 7 2 3.</_></rects>
      <tilted>0</tilted></_>
    <_>
      <rects>
        <_>
          8 20 8 3 -1.</_>
        <_>
          8 21 8 1 3.</_></rects>
      <tilted>0</tilted></_>
    <_>
      <rects>
        <_>
          8 20 13 4 -1.</_>
        <_>
          8 22 13 2 2.</_></rects>
      <tilted>0</tilted></_>
    <_>
      <rects>
        <_>
          9 2 6 3 -1.</_>
        <_>
          11 2 2 3 3.</_></rects>
      <tilted>0</tilted></_>
    <_>
      <rects>
        <_>
          9 2 10 18 -1.</_>
        <_>
          9 2 5 9 2.</_>
        <_>
          14 11 5 9 2.</_></rects>
      <tilted>0</tilted></_>
    <_>
      <rects>
        <_>
          9 3 13 21 -1.</_>
        <_>
          9 10 13 7 3.</_></rects>
      <tilted>0</tilted></_>
    <_>
      <rects>
        <_>
          9 7 6 6 -1.</_>
        <_>
          11 7 2 6 3.</_></rects>
      <tilted>0</tilted></_>
    <_>
      <rects>
        <_>
          9 9 6 6 -1.</_>
        <_>
          11 9 2 6 3.</_></rects>
      <tilted>0</tilted></_>
    <_>
      <rects>
        <_>
          9 10 10 3 -1.</_>
        <_>
          9 11 10 1 3.</_></rects>
      <tilted>0</tilted></_>
    <_>
      <rects>
        <_>
          9 16 1 3 -1.</_>
        <_>
          9 17 1 1 3.</_></rects>
      <tilted>0</tilted></_>
    <_>
      <rects>
        <_>
          9 16 3 4 -1.</_>
        <_>
          10 16 1 4 3.</_></rects>
      <tilted>0</tilted></_>
    <_>
      <rects>
        <_>
          9 16 4 3 -1.</_>
        <_>
          9 17 4 1 3.</_></rects>
      <tilted>0</tilted></_>
    <_>
      <rects>
        <_>
          9 16 7 3 -1.</_>
        <_>
          9 17 7 1 3.</_></rects>
      <tilted>0</tilted></_>
    <_>
      <rects>
        <_>
          9 16 9 3 -1.</_>
        <_>
          9 17 9 1 3.</_></rects>
      <tilted>0</tilted></_>
    <_>
      <rects>
        <_>
          9 17 4 3 -1.</_>
        <_>
          9 18 4 1 3.</_></rects>
      <tilted>0</tilted></_>
    <_>
      <rects>
        <_>
          9 17 12 4 -1.</_>
        <_>
          9 17 6 2 2.</_>
        <_>
          15 19 6 2 2.</_></rects>
      <tilted>0</tilted></_>
    <_>
      <rects>
        <_>
          9 19 3 2 -1.</_>
        <_>
          10 19 1 2 3.</_></rects>
      <tilted>0</tilted></_>
    <_>
      <rects>
        <_>
          9 19 3 4 -1.</_>
        <_>
          10 19 1 4 3.</_></rects>
      <tilted>0</tilted></_>
    <_>
      <rects>
        <_>
          10 0 3 1 -1.</_>
        <_>
          11 0 1 1 3.</_></rects>
      <tilted>0</tilted></_>
    <_>
      <rects>
        <_>
          10 0 3 2 -1.</_>
        <_>
          11 0 1 2 3.</_></rects>
      <tilted>0</tilted></_>
    <_>
      <rects>
        <_>
          10 1 12 18 -1.</_>
        <_>
          10 1 6 9 2.</_>
        <_>
          16 10 6 9 2.</_></rects>
      <tilted>0</tilted></_>
    <_>
      <rects>
        <_>
          10 2 14 22 -1.</_>
        <_>
          10 13 14 11 2.</_></rects>
      <tilted>0</tilted></_>
    <_>
      <rects>
        <_>
          10 3 4 7 -1.</_>
        <_>
          12 3 2 7 2.</_></rects>
      <tilted>0</tilted></_>
    <_>
      <rects>
        <_>
          10 5 4 16 -1.</_>
        <_>
          10 5 2 8 2.</_>
        <_>
          12 13 2 8 2.</_></rects>
      <tilted>0</tilted></_>
    <_>
      <rects>
        <_>
          10 7 3 4 -1.</_>
        <_>
          11 7 1 4 3.</_></rects>
      <tilted>0</tilted></_>
    <_>
      <rects>
        <_>
          10 7 12 3 -1.</_>
        <_>
          14 7 4 3 3.</_></rects>
      <tilted>0</tilted></_>
    <_>
      <rects>
        <_>
          10 9 6 4 -1.</_>
        <_>
          12 9 2 4 3.</_></rects>
      <tilted>0</tilted></_>
    <_>
      <rects>
        <_>
          10 14 3 3 -1.</_>
        <_>
          10 15 3 1 3.</_></rects>
      <tilted>0</tilted></_>
    <_>
      <rects>
        <_>
          10 15 6 3 -1.</_>
        <_>
          10 16 6 1 3.</_></rects>
      <tilted>0</tilted></_>
    <_>
      <rects>
        <_>
          10 16 1 6 -1.</_>
        <_>
          10 19 1 3 2.</_></rects>
      <tilted>0</tilted></_>
    <_>
      <rects>
        <_>
          10 16 3 3 -1.</_>
        <_>
          10 17 3 1 3.</_></rects>
      <tilted>0</tilted></_>
    <_>
      <rects>
        <_>
          10 17 3 7 -1.</_>
        <_>
          11 17 1 7 3.</_></rects>
      <tilted>0</tilted></_>
    <_>
      <rects>
        <_>
          10 18 3 6 -1.</_>
        <_>
          11 18 1 6 3.</_></rects>
      <tilted>0</tilted></_>
    <_>
      <rects>
        <_>
          10 21 1 2 -1.</_>
        <_>
          10 22 1 1 2.</_></rects>
      <tilted>0</tilted></_>
    <_>
      <rects>
        <_>
          11 0 9 2 -1.</_>
        <_>
          11 1 9 1 2.</_></rects>
      <tilted>0</tilted></_>
    <_>
      <rects>
        <_>
          11 0 10 21 -1.</_>
        <_>
          11 7 10 7 3.</_></rects>
      <tilted>0</tilted></_>
    <_>
      <rects>
        <_>
          11 5 3 11 -1.</_>
        <_>
          12 5 1 11 3.</_></rects>
      <tilted>0</tilted></_>
    <_>
      <rects>
        <_>
          11 8 9 4 -1.</_>
        <_>
          11 10 9 2 2.</_></rects>
      <tilted>0</tilted></_>
    <_>
      <rects>
        <_>
          11 16 3 6 -1.</_>
        <_>
          12 16 1 6 3.</_></rects>
      <tilted>0</tilted></_>
    <_>
      <rects>
        <_>
          11 16 4 3 -1.</_>
        <_>
          11 17 4 1 3.</_></rects>
      <tilted>0</tilted></_>
    <_>
      <rects>
        <_>
          11 22 3 2 -1.</_>
        <_>
          12 22 1 2 3.</_></rects>
      <tilted>0</tilted></_>
    <_>
      <rects>
        <_>
          12 0 3 4 -1.</_>
        <_>
          13 0 1 4 3.</_></rects>
      <tilted>0</tilted></_>
    <_>
      <rects>
        <_>
          12 0 3 5 -1.</_>
        <_>
          13 0 1 5 3.</_></rects>
      <tilted>0</tilted></_>
    <_>
      <rects>
        <_>
          12 0 4 24 -1.</_>
        <_>
          12 8 4 8 3.</_></rects>
      <tilted>0</tilted></_>
    <_>
      <rects>
        <_>
          12 0 8 2 -1.</_>
        <_>
          12 1 8 1 2.</_></rects>
      <tilted>0</tilted></_>
    <_>
      <rects>
        <_>
          12 5 6 6 -1.</_>
        <_>
          14 5 2 6 3.</_></rects>
      <tilted>0</tilted></_>
    <_>
      <rects>
        <_>
          12 13 9 9 -1.</_>
        <_>
          12 16 9 3 3.</_></rects>
      <tilted>0</tilted></_>
    <_>
      <rects>
        <_>
          12 16 5 3 -1.</_>
        <_>
          12 17 5 1 3.</_></rects>
      <tilted>0</tilted></_>
    <_>
      <rects>
        <_>
          12 20 2 4 -1.</_>
        <_>
          12 20 1 2 2.</_>
        <_>
          13 22 1 2 2.</_></rects>
      <tilted>0</tilted></_>
    <_>
      <rects>
        <_>
          13 0 3 5 -1.</_>
        <_>
          14 0 1 5 3.</_></rects>
      <tilted>0</tilted></_>
    <_>
      <rects>
        <_>
          13 0 3 6 -1.</_>
        <_>
          14 0 1 6 3.</_></rects>
      <tilted>0</tilted></_>
    <_>
      <rects>
        <_>
          13 7 3 4 -1.</_>
        <_>
          14 7 1 4 3.</_></rects>
      <tilted>0</tilted></_>
    <_>
      <rects>
        <_>
          14 12 4 9 -1.</_>
        <_>
          14 15 4 3 3.</_></rects>
      <tilted>0</tilted></_>
    <_>
      <rects>
        <_>
          14 22 2 2 -1.</_>
        <_>
          14 22 1 1 2.</_>
        <_>
          15 23 1 1 2.</_></rects>
      <tilted>0</tilted></_>
    <_>
      <rects>
        <_>
          15 1 4 2 -1.</_>
        <_>
          17 1 2 2 2.</_></rects>
      <tilted>0</tilted></_>
    <_>
      <rects>
        <_>
          15 4 8 1 -1.</_>
        <_>
          19 4 4 1 2.</_></rects>
      <tilted>0</tilted></_>
    <_>
      <rects>
        <_>
          15 4 9 10 -1.</_>
        <_>
          15 9 9 5 2.</_></rects>
      <tilted>0</tilted></_>
    <_>
      <rects>
        <_>
          15 5 4 3 -1.</_>
        <_>
          15 6 4 1 3.</_></rects>
      <tilted>0</tilted></_>
    <_>
      <rects>
        <_>
          15 5 8 18 -1.</_>
        <_>
          15 11 8 6 3.</_></rects>
      <tilted>0</tilted></_>
    <_>
      <rects>
        <_>
          15 6 5 3 -1.</_>
        <_>
          15 7 5 1 3.</_></rects>
      <tilted>0</tilted></_>
    <_>
      <rects>
        <_>
          16 2 6 8 -1.</_>
        <_>
          16 2 3 4 2.</_>
        <_>
          19 6 3 4 2.</_></rects>
      <tilted>0</tilted></_>
    <_>
      <rects>
        <_>
          16 4 4 4 -1.</_>
        <_>
          16 4 2 2 2.</_>
        <_>
          18 6 2 2 2.</_></rects>
      <tilted>0</tilted></_>
    <_>
      <rects>
        <_>
          16 6 1 10 -1.</_>
        <_>
          16 11 1 5 2.</_></rects>
      <tilted>0</tilted></_>
    <_>
      <rects>
        <_>
          16 6 2 3 -1.</_>
        <_>
          16 7 2 1 3.</_></rects>
      <tilted>0</tilted></_>
    <_>
      <rects>
        <_>
          16 12 4 12 -1.</_>
        <_>
          16 12 2 6 2.</_>
        <_>
          18 18 2 6 2.</_></rects>
      <tilted>0</tilted></_>
    <_>
      <rects>
        <_>
          16 14 4 3 -1.</_>
        <_>
          16 15 4 1 3.</_></rects>
      <tilted>0</tilted></_>
    <_>
      <rects>
        <_>
          17 2 6 14 -1.</_>
        <_>
          20 2 3 14 2.</_></rects>
      <tilted>0</tilted></_>
    <_>
      <rects>
        <_>
          17 2 6 18 -1.</_>
        <_>
          20 2 3 18 2.</_></rects>
      <tilted>0</tilted></_>
    <_>
      <rects>
        <_>
          17 4 2 18 -1.</_>
        <_>
          17 4 1 9 2.</_>
        <_>
          18 13 1 9 2.</_></rects>
      <tilted>0</tilted></_>
    <_>
      <rects>
        <_>
          17 9 2 1 -1.</_>
        <_>
          18 9 1 1 2.</_></rects>
      <tilted>0</tilted></_>
    <_>
      <rects>
        <_>
          17 14 3 3 -1.</_>
        <_>
          17 15 3 1 3.</_></rects>
      <tilted>0</tilted></_>
    <_>
      <rects>
        <_>
          17 14 5 3 -1.</_>
        <_>
          17 15 5 1 3.</_></rects>
      <tilted>0</tilted></_>
    <_>
      <rects>
        <_>
          17 15 5 3 -1.</_>
        <_>
          17 16 5 1 3.</_></rects>
      <tilted>0</tilted></_>
    <_>
      <rects>
        <_>
          17 18 4 3 -1.</_>
        <_>
          17 19 4 1 3.</_></rects>
      <tilted>0</tilted></_>
    <_>
      <rects>
        <_>
          18 2 6 17 -1.</_>
        <_>
          21 2 3 17 2.</_></rects>
      <tilted>0</tilted></_>
    <_>
      <rects>
        <_>
          18 3 4 19 -1.</_>
        <_>
          20 3 2 19 2.</_></rects>
      <tilted>0</tilted></_>
    <_>
      <rects>
        <_>
          18 14 2 3 -1.</_>
        <_>
          18 15 2 1 3.</_></rects>
      <tilted>0</tilted></_>
    <_>
      <rects>
        <_>
          19 0 4 10 -1.</_>
        <_>
          19 0 2 5 2.</_>
        <_>
          21 5 2 5 2.</_></rects>
      <tilted>0</tilted></_>
    <_>
      <rects>
        <_>
          20 5 4 3 -1.</_>
        <_>
          20 6 4 1 3.</_></rects>
      <tilted>0</tilted></_>
    <_>
      <rects>
        <_>
          20 6 3 4 -1.</_>
        <_>
          21 6 1 4 3.</_></rects>
      <tilted>0</tilted></_>
    <_>
      <rects>
        <_>
          20 7 3 10 -1.</_>
        <_>
          21 7 1 10 3.</_></rects>
      <tilted>0</tilted></_>
    <_>
      <rects>
        <_>
          20 8 3 12 -1.</_>
        <_>
          21 8 1 12 3.</_></rects>
      <tilted>0</tilted></_>
    <_>
      <rects>
        <_>
          20 10 3 5 -1.</_>
        <_>
          21 10 1 5 3.</_></rects>
      <tilted>0</tilted></_>
    <_>
      <rects>
        <_>
          21 5 3 6 -1.</_>
        <_>
          22 5 1 6 3.</_></rects>
      <tilted>0</tilted></_>
    <_>
      <rects>
        <_>
          21 5 3 2 -1.</_>
        <_>
          21 6 3 1 2.</_></rects>
      <tilted>0</tilted></_>
    <_>
      <rects>
        <_>
          21 10 2 3 -1.</_>
        <_>
          21 11 2 1 3.</_></rects>
      <tilted>0</tilted></_>
    <_>
      <rects>
        <_>
          23 0 1 6 -1.</_>
        <_>
          23 2 1 2 3.</_></rects>
      <tilted>0</tilted></_></features></cascade>
</opencv_storage>
